<?xml version="1.0"?>
<opencv_storage>
<cascade>
  <stageType>BOOST</stageType>
  <featureType>LBP</featureType>
  <height>50</height>
  <width>75</width>
  <stageParams>
    <boostType>GAB</boostType>
    <minHitRate>9.9900001287460327e-01</minHitRate>
    <maxFalseAlarm>5.0000000000000000e-01</maxFalseAlarm>
    <weightTrimRate>9.4999999999999996e-01</weightTrimRate>
    <maxDepth>1</maxDepth>
    <maxWeakCount>100</maxWeakCount></stageParams>
  <featureParams>
    <maxCatCount>256</maxCatCount>
    <featSize>1</featSize></featureParams>
  <stageNum>16</stageNum>
  <stages>
    <!-- stage 0 -->
    <_>
      <maxWeakCount>3</maxWeakCount>
      <stageThreshold>-9.8503988981246948e-01</stageThreshold>
      <weakClassifiers>
        <_>
          <internalNodes>
            0 -1 6 -3211278 -1094306 -209202689 -10242 -7733509
            -73425765 -74450181 -4456449</internalNodes>
          <leafValues>
            -9.5224517583847046e-01 9.0668570995330811e-01</leafValues></_>
        <_>
          <internalNodes>
            0 -1 35 -170396299 -170534415 -681322657 -2108417 -81788929
            -277601 -69214211 -1</internalNodes>
          <leafValues>
            -8.5732269287109375e-01 8.9268565177917480e-01</leafValues></_>
        <_>
          <internalNodes>
            0 -1 37 -2097153 -11021313 -238838309 -33595425 -7340033
            -7622733 -2368003 -2531491</internalNodes>
          <leafValues>
            -8.7530833482742310e-01 8.2452791929244995e-01</leafValues></_></weakClassifiers></_>
    <!-- stage 1 -->
    <_>
      <maxWeakCount>3</maxWeakCount>
      <stageThreshold>-9.8727780580520630e-01</stageThreshold>
      <weakClassifiers>
        <_>
          <internalNodes>
            0 -1 31 -1050635 -2625089 -586428419 -4199489 -1079116803
            -4457585 -1049091 -1027</internalNodes>
          <leafValues>
            -9.2835128307342529e-01 8.2873880863189697e-01</leafValues></_>
        <_>
          <internalNodes>
            0 -1 10 14677879 -50605121 -1207971073 -1109936197
            1262223359 -67380253 -72614917 -33554433</internalNodes>
          <leafValues>
            -8.6010682582855225e-01 8.0409365892410278e-01</leafValues></_>
        <_>
          <internalNodes>
            0 -1 29 -3 -35652131 -237125633 -1667 -36700163 -7341571
            -4194305 -8434435</internalNodes>
          <leafValues>
            -7.8905296325683594e-01 8.0118030309677124e-01</leafValues></_></weakClassifiers></_>
    <!-- stage 2 -->
    <_>
      <maxWeakCount>2</maxWeakCount>
      <stageThreshold>-2.3153203725814819e-01</stageThreshold>
      <weakClassifiers>
        <_>
          <internalNodes>
            0 -1 5 -236979206 -107802273 151106030 -842294801
            -1043751941 -359989221 -389415681 -1057797</internalNodes>
          <leafValues>
            -9.3213409185409546e-01 7.8602617979049683e-01</leafValues></_>
        <_>
          <internalNodes>
            0 -1 21 797642687 -69242413 969209599 -572532881 -1429537797
            -24411965 -2004354305 -67143186</internalNodes>
          <leafValues>
            -8.7784445285797119e-01 7.0060205459594727e-01</leafValues></_></weakClassifiers></_>
    <!-- stage 3 -->
    <_>
      <maxWeakCount>3</maxWeakCount>
      <stageThreshold>-8.6030369997024536e-01</stageThreshold>
      <weakClassifiers>
        <_>
          <internalNodes>
            0 -1 38 -671621123 -3419152 -607657987 -538995971 -71304195
            -4223267 -618921985 -547370531</internalNodes>
          <leafValues>
            -7.4874705076217651e-01 8.5833179950714111e-01</leafValues></_>
        <_>
          <internalNodes>
            0 -1 36 -239403016 -1082394408 -543434241 -536871939
            -1106538502 -1145311765 185293819 219105791</internalNodes>
          <leafValues>
            -8.5523658990859985e-01 7.0395380258560181e-01</leafValues></_>
        <_>
          <internalNodes>
            0 -1 44 -69207759 -202271437 -1750220385 -67506273
            -1165230401 -70328181 -1106604097 -1147167809</internalNodes>
          <leafValues>
            -7.6939922571182251e-01 7.4368000030517578e-01</leafValues></_></weakClassifiers></_>
    <!-- stage 4 -->
    <_>
      <maxWeakCount>3</maxWeakCount>
      <stageThreshold>-7.7627211809158325e-01</stageThreshold>
      <weakClassifiers>
        <_>
          <internalNodes>
            0 -1 1 -1056964881 -17375393 -216837749 -16878221 1088942835
            -184560729 -73401457 -1048657</internalNodes>
          <leafValues>
            -7.4588727951049805e-01 8.1742739677429199e-01</leafValues></_>
        <_>
          <internalNodes>
            0 -1 28 -16581 -1 -3 1879048187 -69 -1 -5 -69</internalNodes>
          <leafValues>
            -6.7952525615692139e-01 7.9639887809753418e-01</leafValues></_>
        <_>
          <internalNodes>
            0 -1 32 -241172481 -250641989 -645146093 -883965185
            -1155533825 -1551146353 -537133057 -132227</internalNodes>
          <leafValues>
            -8.2678377628326416e-01 6.6025161743164063e-01</leafValues></_></weakClassifiers></_>
    <!-- stage 5 -->
    <_>
      <maxWeakCount>2</maxWeakCount>
      <stageThreshold>-5.7300303131341934e-02</stageThreshold>
      <weakClassifiers>
        <_>
          <internalNodes>
            0 -1 45 -542050384 -2142212 -176160769 -37751859 993263551
            -1078219333 -100935169 -1086334723</internalNodes>
          <leafValues>
            -7.4293059110641479e-01 7.7910870313644409e-01</leafValues></_>
        <_>
          <internalNodes>
            0 -1 3 -536886490 -73230 -779533862 -358286 -761305045
            -90502332 -2130336593 -37293</internalNodes>
          <leafValues>
            -8.3640897274017334e-01 6.9327235221862793e-01</leafValues></_></weakClassifiers></_>
    <!-- stage 6 -->
    <_>
      <maxWeakCount>3</maxWeakCount>
      <stageThreshold>-8.4646189212799072e-01</stageThreshold>
      <weakClassifiers>
        <_>
          <internalNodes>
            0 -1 23 -286331154 -69266 1234432479 -3713 -337714945
            -67914496 -308805957 2147220479</internalNodes>
          <leafValues>
            -8.7186145782470703e-01 7.2479474544525146e-01</leafValues></_>
        <_>
          <internalNodes>
            0 -1 30 -1080360973 -2425264 2006316543 2113918333
            -1719419909 -24466689 -1144260609 -12585985</internalNodes>
          <leafValues>
            -7.0234066247940063e-01 7.6298505067825317e-01</leafValues></_>
        <_>
          <internalNodes>
            0 -1 50 -2097153 1006102423 1229186057 -410528977 -722745907
            -929052521 1375323344 234877407</internalNodes>
          <leafValues>
            -7.2586601972579956e-01 7.2774022817611694e-01</leafValues></_></weakClassifiers></_>
    <!-- stage 7 -->
    <_>
      <maxWeakCount>5</maxWeakCount>
      <stageThreshold>-1.0958842039108276e+00</stageThreshold>
      <weakClassifiers>
        <_>
          <internalNodes>
            0 -1 15 -100667141 1442796799 1929377791 1442665727
            -285214721 -1 1106737151 1157625855</internalNodes>
          <leafValues>
            -6.8784916400909424e-01 7.8937858343124390e-01</leafValues></_>
        <_>
          <internalNodes>
            0 -1 26 -524291 -2100291 -712278017 -2370691 -271582211
            -1334327 -6291459 -1073783555</internalNodes>
          <leafValues>
            -7.5571757555007935e-01 7.1055328845977783e-01</leafValues></_>
        <_>
          <internalNodes>
            0 -1 46 -134744271 -246062361 -620247881 -169896097
            -302266115 -18118519 -892353601 1977603711</internalNodes>
          <leafValues>
            -8.4985405206680298e-01 5.8735358715057373e-01</leafValues></_>
        <_>
          <internalNodes>
            0 -1 24 -69208065 -539037226 -640994850 -1074882306
            -373054833 -104922677 -365703681 2147478270</internalNodes>
          <leafValues>
            -7.7520948648452759e-01 6.0894757509231567e-01</leafValues></_>
        <_>
          <internalNodes>
            0 -1 42 -40174728 -102834064 -544351393 -45657771 1594542778
            -69688902 792427771 529468767</internalNodes>
          <leafValues>
            -8.3286923170089722e-01 5.3553843498229980e-01</leafValues></_></weakClassifiers></_>
    <!-- stage 8 -->
    <_>
      <maxWeakCount>4</maxWeakCount>
      <stageThreshold>-1.6428625583648682e+00</stageThreshold>
      <weakClassifiers>
        <_>
          <internalNodes>
            0 -1 18 -1204617414 -1610819622 1073741823 1603590999
            -1090519041 -104931073 -1140850689 -1376473</internalNodes>
          <leafValues>
            -7.1068704128265381e-01 7.3737025260925293e-01</leafValues></_>
        <_>
          <internalNodes>
            0 -1 14 -537927681 -286074401 -1656548993 -4523042 -72380689
            -1094268793 -304088901 1610080255</internalNodes>
          <leafValues>
            -7.6874262094497681e-01 6.2708586454391479e-01</leafValues></_>
        <_>
          <internalNodes>
            0 -1 47 -76546051 -610823801 -2140930883 -611376629
            -319690244 2111507329 -120989460 -658636801</internalNodes>
          <leafValues>
            -8.4373080730438232e-01 5.4296916723251343e-01</leafValues></_>
        <_>
          <internalNodes>
            0 -1 2 -270012465 -874397061 -1018740709 -575916585
            128142303 188781185 -99779725 2138529791</internalNodes>
          <leafValues>
            -7.6775938272476196e-01 5.9929800033569336e-01</leafValues></_></weakClassifiers></_>
    <!-- stage 9 -->
    <_>
      <maxWeakCount>4</maxWeakCount>
      <stageThreshold>-1.5591528415679932e+00</stageThreshold>
      <weakClassifiers>
        <_>
          <internalNodes>
            0 -1 27 1060863999 1073741823 1073741823 2147483647
            2134900735 -1 -1077936129 -1145307137</internalNodes>
          <leafValues>
            -7.1428573131561279e-01 7.3324143886566162e-01</leafValues></_>
        <_>
          <internalNodes>
            0 -1 33 -551888968 -614742084 -136449573 -2117155 991656811
            -1076941889 235109167 222259199</internalNodes>
          <leafValues>
            -8.4191936254501343e-01 5.5535149574279785e-01</leafValues></_>
        <_>
          <internalNodes>
            0 -1 40 -11011073 -783075545 -801816577 -77877281 -81085445
            -38682209 -14483461 -552643107</internalNodes>
          <leafValues>
            -7.3194694519042969e-01 6.2751483917236328e-01</leafValues></_>
        <_>
          <internalNodes>
            0 -1 0 -489686233 8577160 -1606285312 1615839747 1074127139
            4228363 1140977664 1082128323</internalNodes>
          <leafValues>
            -7.1852797269821167e-01 6.3662147521972656e-01</leafValues></_></weakClassifiers></_>
    <!-- stage 10 -->
    <_>
      <maxWeakCount>3</maxWeakCount>
      <stageThreshold>-9.7128641605377197e-01</stageThreshold>
      <weakClassifiers>
        <_>
          <internalNodes>
            0 -1 9 -1 -12582913 -1 -16777218 -1 2147483647 -1 -536870913</internalNodes>
          <leafValues>
            -8.5626286268234253e-01 9.0523201227188110e-01</leafValues></_>
        <_>
          <internalNodes>
            0 -1 34 -69209091 -782817137 -2104915219 -251453173
            -1902214449 -1601468278 -394024451 1244643567</internalNodes>
          <leafValues>
            -9.3561792373657227e-01 7.6862102746963501e-01</leafValues></_>
        <_>
          <internalNodes>
            0 -1 11 -353371399 -393480 335499707 2147047929 -352327425
            -1 419416303 -5579848</internalNodes>
          <leafValues>
            -7.8269320726394653e-01 8.2059431076049805e-01</leafValues></_></weakClassifiers></_>
    <!-- stage 11 -->
    <_>
      <maxWeakCount>3</maxWeakCount>
      <stageThreshold>-8.2203620672225952e-01</stageThreshold>
      <weakClassifiers>
        <_>
          <internalNodes>
            0 -1 41 1995435007 1292566563 -802053665 -956069569
            -2102674707 -930479482 -490952067 -81009745</internalNodes>
          <leafValues>
            -8.6724698543548584e-01 8.6352717876434326e-01</leafValues></_>
        <_>
          <internalNodes>
            0 -1 12 -83887875 -553648136 335534591 536829433 -1157644545
            -536870913 452966655 -1073775105</internalNodes>
          <leafValues>
            -6.8627369403839111e-01 8.5789543390274048e-01</leafValues></_>
        <_>
          <internalNodes>
            0 -1 52 -541065737 -266516209 8626216 -460799662 -1878839289
            805306368 -1073266557 -455609609</internalNodes>
          <leafValues>
            -8.1268465518951416e-01 7.7722275257110596e-01</leafValues></_></weakClassifiers></_>
    <!-- stage 12 -->
    <_>
      <maxWeakCount>4</maxWeakCount>
      <stageThreshold>-2.4763068556785583e-01</stageThreshold>
      <weakClassifiers>
        <_>
          <internalNodes>
            0 -1 19 -1068510817 424741246 1405321951 -201990690 1196075
            8585217 -2146746229 -75504737</internalNodes>
          <leafValues>
            -8.1505376100540161e-01 8.4927535057067871e-01</leafValues></_>
        <_>
          <internalNodes>
            0 -1 25 -1854701569 465957783 1342296985 1432326675
            -1551459349 -276733776 651264955 -6005</internalNodes>
          <leafValues>
            -8.2355260848999023e-01 7.5860118865966797e-01</leafValues></_>
        <_>
          <internalNodes>
            0 -1 48 -34603017 -1202751033 1221286045 1544235655
            1402153717 -108298222 1086407479 2013225203</internalNodes>
          <leafValues>
            -9.0807569026947021e-01 6.8567389249801636e-01</leafValues></_>
        <_>
          <internalNodes>
            0 -1 8 -1869342721 -246390123 1364562395 -612298605
            -1600210433 -134084456 706816511 -72728376</internalNodes>
          <leafValues>
            -8.1893181800842285e-01 7.1689760684967041e-01</leafValues></_></weakClassifiers></_>
    <!-- stage 13 -->
    <_>
      <maxWeakCount>4</maxWeakCount>
      <stageThreshold>-1.5712586641311646e+00</stageThreshold>
      <weakClassifiers>
        <_>
          <internalNodes>
            0 -1 22 -838860801 -838860801 -1 -437190399 -385494471
            -266141472 -284866549 -425463005</internalNodes>
          <leafValues>
            -7.4675971269607544e-01 8.7581372261047363e-01</leafValues></_>
        <_>
          <internalNodes>
            0 -1 17 1401159165 858489487 279151101 286327059 2219
            1073741825 -1476133957 308759327</internalNodes>
          <leafValues>
            -8.5186833143234253e-01 7.3345738649368286e-01</leafValues></_>
        <_>
          <internalNodes>
            0 -1 51 -545261633 1212862927 -634904418 -998439741
            -771239583 1342243459 -255273931 -236063573</internalNodes>
          <leafValues>
            -7.8237521648406982e-01 7.6367419958114624e-01</leafValues></_>
        <_>
          <internalNodes>
            0 -1 4 -908333057 -241967721 1208121475 -620635133 176163275
            184640385 92352911 1606156007</internalNodes>
          <leafValues>
            -7.7558112144470215e-01 7.2154617309570313e-01</leafValues></_></weakClassifiers></_>
    <!-- stage 14 -->
    <_>
      <maxWeakCount>4</maxWeakCount>
      <stageThreshold>-4.0723636746406555e-01</stageThreshold>
      <weakClassifiers>
        <_>
          <internalNodes>
            0 -1 43 -614223873 1125329675 1480814899 -2008874957
            -221531461 -509411317 -85348355 -675857</internalNodes>
          <leafValues>
            -8.3111113309860229e-01 8.3238095045089722e-01</leafValues></_>
        <_>
          <internalNodes>
            0 -1 49 -596124673 -1488509661 -1601466361 -83787679
            -938834223 -1962704510 1208731869 475003647</internalNodes>
          <leafValues>
            -8.4161078929901123e-01 7.2369098663330078e-01</leafValues></_>
        <_>
          <internalNodes>
            0 -1 13 -1206125352 -1080963047 218204501 2097401863
            -1438088743 -100626366 -1843348721 -1060853</internalNodes>
          <leafValues>
            -9.3222129344940186e-01 6.3981217145919800e-01</leafValues></_>
        <_>
          <internalNodes>
            0 -1 20 1347928479 -1315237601 1140917009 -46710306
            -1073151869 -1878392695 -1048543077 2037352639</internalNodes>
          <leafValues>
            -8.9154917001724243e-01 6.3240510225296021e-01</leafValues></_></weakClassifiers></_>
    <!-- stage 15 -->
    <_>
      <maxWeakCount>4</maxWeakCount>
      <stageThreshold>-1.5745158493518829e-01</stageThreshold>
      <weakClassifiers>
        <_>
          <internalNodes>
            0 -1 39 -1 -33 -1 -1 -458754 -8 -9371650 -13475969</internalNodes>
          <leafValues>
            -7.5604629516601563e-01 8.3894580602645874e-01</leafValues></_>
        <_>
          <internalNodes>
            0 -1 53 -2107137 -334954297 35074268 -469712650 1343479879
            1346372615 1904296373 1952838199</internalNodes>
          <leafValues>
            -8.5647386312484741e-01 7.1677356958389282e-01</leafValues></_>
        <_>
          <internalNodes>
            0 -1 16 -1382350888 -673852236 25285587 -686562343
            -1199318049 -1080377214 -1473578821 -1413789507</internalNodes>
          <leafValues>
            -7.8299343585968018e-01 7.1256816387176514e-01</leafValues></_>
        <_>
          <internalNodes>
            0 -1 7 -1828692481 -240123116 -1659866631 1540641930
            167787231 -1870131140 2081316783 -605365377</internalNodes>
          <leafValues>
            -7.4655830860137939e-01 7.4250042438507080e-01</leafValues></_></weakClassifiers></_></stages>
  <features>
    <_>
      <rect>
        0 3 3 14</rect></_>
    <_>
      <rect>
        0 11 9 7</rect></_>
    <_>
      <rect>
        1 1 7 11</rect></_>
    <_>
      <rect>
        1 24 9 8</rect></_>
    <_>
      <rect>
        3 5 5 5</rect></_>
    <_>
      <rect>
        3 21 21 4</rect></_>
    <_>
      <rect>
        4 10 17 10</rect></_>
    <_>
      <rect>
        4 37 21 3</rect></_>
    <_>
      <rect>
        6 38 21 3</rect></_>
    <_>
      <rect>
        7 20 16 7</rect></_>
    <_>
      <rect>
        9 10 6 8</rect></_>
    <_>
      <rect>
        10 6 14 2</rect></_>
    <_>
      <rect>
        11 8 12 2</rect></_>
    <_>
      <rect>
        11 13 6 3</rect></_>
    <_>
      <rect>
        11 22 8 4</rect></_>
    <_>
      <rect>
        12 17 5 3</rect></_>
    <_>
      <rect>
        13 9 3 1</rect></_>
    <_>
      <rect>
        14 11 20 13</rect></_>
    <_>
      <rect>
        15 11 7 3</rect></_>
    <_>
      <rect>
        15 20 8 7</rect></_>
    <_>
      <rect>
        15 23 8 4</rect></_>
    <_>
      <rect>
        16 8 14 5</rect></_>
    <_>
      <rect>
        17 14 4 5</rect></_>
    <_>
      <rect>
        17 19 7 3</rect></_>
    <_>
      <rect>
        18 25 5 3</rect></_>
    <_>
      <rect>
        19 11 6 2</rect></_>
    <_>
      <rect>
        21 34 5 3</rect></_>
    <_>
      <rect>
        24 13 9 4</rect></_>
    <_>
      <rect>
        24 14 12 4</rect></_>
    <_>
      <rect>
        25 33 5 3</rect></_>
    <_>
      <rect>
        27 11 5 2</rect></_>
    <_>
      <rect>
        27 15 14 9</rect></_>
    <_>
      <rect>
        27 22 6 7</rect></_>
    <_>
      <rect>
        27 30 5 2</rect></_>
    <_>
      <rect>
        28 19 11 4</rect></_>
    <_>
      <rect>
        30 7 15 9</rect></_>
    <_>
      <rect>
        30 29 6 2</rect></_>
    <_>
      <rect>
        32 26 8 6</rect></_>
    <_>
      <rect>
        32 31 8 3</rect></_>
    <_>
      <rect>
        34 26 6 3</rect></_>
    <_>
      <rect>
        36 32 9 3</rect></_>
    <_>
      <rect>
        38 17 9 6</rect></_>
    <_>
      <rect>
        38 37 6 2</rect></_>
    <_>
      <rect>
        39 20 7 5</rect></_>
    <_>
      <rect>
        42 3 11 7</rect></_>
    <_>
      <rect>
        43 30 5 2</rect></_>
    <_>
      <rect>
        47 2 9 10</rect></_>
    <_>
      <rect>
        47 17 9 8</rect></_>
    <_>
      <rect>
        48 13 4 5</rect></_>
    <_>
      <rect>
        53 25 7 7</rect></_>
    <_>
      <rect>
        57 12 6 12</rect></_>
    <_>
      <rect>
        60 9 4 8</rect></_>
    <_>
      <rect>
        61 6 4 9</rect></_>
    <_>
      <rect>
        63 7 3 9</rect></_></features></cascade>
</opencv_storage>
